2.438554,2.915796,0.941905,1.321795,1.412153,4.072926,1.642647,1.955409,1.797488,3.673719,0.673083,1.804980,0.279661,-0.415171,0.259785,1.431281,3.050982,2.614071,1.702303,1.371630,0.531450
-5.430518,0.765032,0.195276,0.359488,0.929715,-4.659482,-1.190200,0.530673,0.784282,-5.062555,-4.742301,1.930468,0.182245,2.023126,-2.203867,1.573171,-1.658379,-3.345796,1.429281,1.349113,0.615443
-2.317865,3.012175,1.168307,1.974891,2.515251,2.273477,-0.550221,1.787346,1.838843,-1.175960,-0.033662,2.695612,1.911364,-2.797144,-0.764680,1.639946,1.199030,-0.042229,2.379465,1.726248,2.062288
-3.688118,-8.153868,2.631927,2.338967,0.520671,-1.338057,0.112717,2.366368,2.368867,-6.323704,5.152191,1.612301,1.895413,3.666599,1.891410,0.882386,1.226816,-1.594485,2.971404,0.584547,-0.658429
-8.207701,3.053190,1.276028,-0.034139,2.752532,-3.069448,-0.745947,2.592238,1.753464,-3.177070,-7.554234,3.040523,2.487655,-2.603112,-5.633119,2.065682,-1.497965,-3.210866,1.516841,1.997607,4.225002
8.389775,2.022438,4.397062,4.971527,1.869474,-3.322327,0.041136,2.714926,3.347095,5.396943,7.341762,1.954881,5.057271,-0.190412,-2.947981,1.183652,-1.057375,6.946064,4.748514,1.015113,1.532505
-6.801939,2.997380,2.765411,1.383982,2.926678,0.377294,0.072918,2.004680,2.050973,-6.183484,-6.652230,3.042437,1.485434,-1.717495,-2.116942,2.037585,0.490321,-4.409946,2.136961,2.100812,3.563075
6.792112,3.559562,1.919808,1.747336,3.615098,0.715670,0.408328,1.790320,1.806656,-6.552804,2.105506,3.041134,1.651477,1.125262,2.608403,1.140215,-1.236869,-5.502791,1.826468,0.399694,-0.481956
7.519685,2.895663,-22.742414,-21.714713,2.698072,-0.403987,-0.002317,-22.609894,-25.786410,10.727467,2.220840,2.967565,-22.515255,-2.686183,-4.222844,2.176686,0.852909,1.697094,-21.385466,2.262504,2.384947
6.770911,2.081949,2.198867,1.681857,1.976614,2.718977,1.060294,2.290550,2.211048,6.669555,1.825623,2.969901,1.101319,-3.024319,-2.374413,2.183774,1.577571,2.336173,-0.123828,1.930634,2.196079
-5.215295,2.699621,1.880085,1.543906,2.858402,3.011417,-0.710653,1.722309,1.746055,-6.339433,-5.273723,3.253553,1.904975,-0.546622,1.121569,2.451749,1.813039,-4.947798,1.753297,2.506769,1.334193
-8.200588,2.215687,1.640840,1.158251,2.349383,2.973575,-0.234465,1.595994,1.546414,-5.318956,-9.083901,2.674880,2.737705,-2.376503,-0.755151,1.817576,1.543367,-8.946362,1.964949,1.440145,1.704708
-9.034649,-1.935339,1.623569,1.643412,-1.532397,1.925212,0.426285,1.951941,1.997252,-10.366714,0.096366,-4.302696,1.627301,6.062287,9.245535,-2.593437,-0.332001,-6.255501,2.082083,-3.432603,-6.032187
-1.902223,-5.756707,1.871920,1.879968,-7.948651,5.742643,0.035121,1.871699,1.946349,-3.548834,5.443130,-12.566327,1.612546,3.837072,6.765761,-10.127360,0.334725,5.626739,2.361284,-8.320691,-3.598649
-3.949135,-4.311681,1.511386,1.497244,-4.818423,2.123990,1.694941,1.784256,1.893113,-8.405902,-3.521346,1.129518,1.576153,3.153798,4.411101,1.526028,0.086445,-5.751798,1.816235,0.442797,-1.397593
8.073194,-4.938295,4.708021,3.588466,-1.310636,-1.125275,0.709409,1.502255,1.771462,2.042168,10.017471,1.512378,5.334650,1.888524,0.728747,1.336078,-0.499956,4.647771,3.806267,-1.031894,-1.014950
-2.650243,2.666308,0.611584,1.347985,2.378188,-0.355451,1.417203,1.688260,1.688385,3.906205,-6.654926,2.748075,0.464669,-1.479444,-1.863934,1.886396,0.274643,-2.512620,1.783770,1.917095,3.808537
-6.581578,-2.816047,2.004872,1.803440,-2.682565,0.967632,0.969239,1.976002,2.172828,-7.060027,-4.002131,0.251888,1.290007,2.984709,1.255115,0.824801,-1.536766,-5.816910,2.197984,0.317108,-0.369976
0.080856,3.098031,-14.299188,-9.824575,2.792923,-1.460217,-0.032888,-17.528848,-13.545074,6.389953,-0.252346,2.914053,-15.129151,-2.475675,-4.923441,1.899325,0.099421,5.813089,-16.543580,2.048528,3.844178
9.264990,2.446930,1.338163,0.161021,2.601835,-3.749823,-0.729327,0.484021,0.939309,8.871821,5.486932,2.130510,2.049080,-1.805300,-1.623377,0.738371,-0.995023,5.208042,1.163040,1.070523,1.412552
-0.059363,-4.067097,1.506442,1.587234,-6.396710,5.131791,-0.382036,1.895770,1.925410,-2.262643,2.156196,-7.849190,1.531608,1.742821,7.085568,1.267735,0.553379,0.704654,2.032095,-0.676214,-3.555523
8.965885,-10.435456,3.315369,1.925898,-13.175960,-2.421032,0.108114,1.523760,1.391482,10.210499,7.948744,-17.463046,3.333263,2.271275,3.130083,-18.922828,-0.992491,8.119278,1.938713,-13.609386,-2.032009
-1.333917,-1.782413,1.905037,2.016167,-2.175195,-2.517693,-0.078316,1.927551,1.927769,1.060219,5.314917,-4.972397,2.021209,5.236227,7.367843,-2.787160,-0.845273,8.118654,2.103516,-2.559625,-5.909631
-0.531186,2.524081,-0.674475,0.586869,2.536862,-0.586485,-0.713289,0.698101,0.976316,4.863653,-2.045602,2.929374,-1.049529,-3.305970,-3.518491,1.891494,-0.918127,2.535203,-1.009898,1.875203,3.881386
8.516365,3.145400,-2.375112,-3.526866,3.012225,-1.763354,-0.488094,0.182465,1.158915,10.432323,4.774975,3.102769,-3.850388,-0.632421,-1.298813,2.341482,-1.550354,4.821994,-1.673658,1.973677,1.595265
0.824176,2.561037,-0.539181,-0.700440,2.306377,-5.458984,-0.347325,-0.481922,-0.684085,-2.275784,-7.762082,2.768873,0.147827,-4.869348,-10.222673,1.759640,-0.212351,-4.270166,-1.042142,1.831237,3.950892
-0.959534,-0.826838,-0.235731,-0.072026,-0.652331,-0.637349,-0.055746,-0.730603,-0.575995,-0.545022,-0.900133,-0.959746,0.142156,-1.899113,-1.157517,-0.306494,-0.619735,-0.482326,-0.352065,-0.907859,-11.002180
-0.599150,-2.466315,1.246276,-3.452605,3.041282,0.249335,-0.127600,-0.289218,-7.508221,-1.831770,1.327548,-5.199223,6.397332,-4.954026,-0.360504,-4.424596,-0.659056
49.006033,13.854479,-244.981842,316.210698,-155.943882,54.336304,325.986298,-434.255014,-290.321299,62.973872,179.566911,-581.240402,-44.532842,387.446311,-386.914185,-65.999797,20.103666
-0.155088,2.400962,-0.270357,2.368033,0.534078,2.643292,-1.391192,1.981260,5.009138,1.733942,-2.935166,3.617718,-3.071744,1.062387,4.283642,2.134540,0.015376
0.396714,-0.875632,0.296409,-1.069469,0.357906,-1.102018,0.395882,0.654237,-0.729938,-0.595688,1.099708,-2.176674,0.897845,0.002848,-1.962443,-1.410744,0.117166
-1.899822,-1.808494,-2.496567,-1.190078,-1.978012,-4.363766,-1.353143,-2.885591,4.625818,-6.067413,-0.159777,-0.326458,-5.907466,0.361257,4.166426,-0.782515,-0.376196
1.032145,1.956800,0.856934,1.090019,0.341425,1.866412,0.152508,0.759201,0.870152,1.734385,-0.374788,1.053262,0.131309,1.115661,0.247726,2.126661,-0.265121
0.148068,-1.585792,1.105215,-0.952829,0.566524,-0.080485,-6.377270,1.577321,0.721324,-0.886809,-5.298755,1.246677,1.169478,-2.971077,1.873858,-0.199207,-0.052285
-0.775987,0.900342,-1.151064,0.406655,0.027253,1.370219,-0.977191,-0.154103,2.219632,1.688235,-1.439670,3.116579,-2.190921,0.383162,2.253064,2.354510,0.452302
0.365447,0.122931,-0.186219,0.302360,0.265863,0.312727,0.647604,0.313728,0.022543,0.425438,-0.137975,-0.193805,0.120426,0.683774,-0.082717,0.593433,0.214599
-0.039048,-0.347122,0.360469,-0.154262,-0.322345,0.213495,-0.562222,-0.646463,-0.618654,-0.410648,-0.915917,-0.697187,0.245105,-0.590454,-0.323231,-0.040620,0.289093
-44.594736,-1.311224,56.349252,-490.586985,580.393265,-100.681963,175.427017,624.482086,76.417943,209.644270,-72.038383,-579.639832,787.000364,-275.939054,-376.909080,211.046543,-20.697783
4.698957,1.736583,4.215266,0.338264,0.483620,0.652532,8.115058,-0.490764,-2.528109,1.942790,9.728317,-5.564233,7.538030,5.829304,-5.587953,-1.196716,0.104686
0.023769,-0.669198,0.056199,-0.389074,-0.228332,-1.115622,-0.007519,0.399690,-1.171259,-0.917483,0.334507,-0.718121,-0.049227,-0.163632,-0.226694,-0.295535,0.265555
1.006085,0.588318,1.139671,-0.465677,2.514060,1.501280,6.045422,0.811940,-2.797211,1.185331,7.315069,-1.466533,5.096213,3.291355,-2.760752,0.507016,-0.376608
-0.246610,1.008533,-1.445104,1.235331,-0.066430,2.459389,0.356530,-1.972383,2.604038,1.667631,-1.375422,2.188169,-1.706368,1.145775,2.606861,1.515180,-0.303706
6.640401,4.653249,-522.235752,140.708835,163.580101,98.610915,314.394047,34.679180,168.212616,199.396046,52.404209,-871.072078,-713.027287,-180.611812,1138.633070,258.675431,-71.798888
0.701723,0.652375,0.861830,-0.035040,0.508001,2.509651,4.862486,2.669552,-3.203235,4.281935,4.566766,-1.423404,4.020030,1.396091,0.238341,1.047500,-0.321098
0.822925,-1.454560,-1.109842,-2.082702,0.824802,-3.167830,3.627865,-2.232681,-4.796811,-3.546008,6.747617,-8.241270,3.928068,-0.979647,-6.179751,-4.409407,-0.490889
2.183597,-0.693770,6.084596,-1.371904,3.239479,10.695329,5.967441,12.036454,-13.377160,7.950379,3.685799,1.037044,13.926584,4.024901,-12.316513,1.164939,0.300016
-0.718283,1.414563,-0.778733,2.152018,-0.153102,3.407492,-1.074402,-0.823478,2.173288,1.024599,-3.143179,4.954200,-2.997093,-0.273136,3.888875,3.420448,0.341644
3.492219,12.112991,-3.518821,1.192723,-0.276151,-2.140664,-0.310042,-2.988994,-1.381797,-0.139221,-10.696944,1.366801,0.515646,0.392155,-2.451756,6.988503,0.181600,3.123734,-0.316975,-3.955803,-1.650110
-1.068388,-7.037596,-0.550522,-0.831732,0.968264,-0.686339,0.735756,-0.930056,-0.873044,-0.329321,-7.983189,-1.465244,-0.250606,-1.126637,-1.252564,6.112479,-0.507321,-1.307655,-1.901153,-0.883758,-0.766218
-0.763544,-3.376382,-1.115503,0.188934,-0.433261,-1.042967,-0.035383,-1.516879,-1.982406,0.362938,4.524705,-1.654470,-0.744395,-1.814047,-1.848959,-7.945804,-1.112419,-0.428789,-0.538858,-2.061524,-1.763542
-0.775348,-5.585263,-0.309376,-0.150274,-0.526287,-0.401482,-0.333289,-1.810376,-0.716986,-0.110640,5.076063,-0.437619,0.036159,-0.534017,-1.419541,-7.200437,-0.504778,0.265677,-0.125801,-1.118352,-1.290853
-1.464357,-8.802320,1.385837,-1.116925,1.269188,0.221570,3.924142,-0.334790,-1.613786,-0.274691,-11.348989,-4.090906,-0.241202,-2.258766,-0.411928,6.611900,-1.973361,-1.552841,-0.670277,-0.112110,-1.460649
-2.225673,-11.353145,0.918996,0.055928,-0.757842,0.525083,0.173044,-0.028755,0.296332,1.193688,-14.310320,-0.399224,-0.347996,0.359287,0.495545,-10.227042,0.095295,-0.711782,0.723476,0.041311,-0.219981
0.172267,-1.085820,-0.745016,-0.064772,0.405033,-0.967414,0.453425,-1.366961,-1.960489,0.416000,-1.451204,-1.190665,-0.049331,-1.162071,-1.569182,0.028545,-1.804913,-0.216558,2.915318,-1.487566,-1.910704
-0.699605,-2.976940,-0.733057,-0.338582,-0.549351,-0.510366,0.589138,-0.735255,-0.782676,0.444362,5.511980,-1.168049,-0.322554,-1.135579,-1.025309,-7.994797,-0.791814,-0.791961,0.271760,-1.253799,-1.389288
-1.212451,-3.377975,-0.485104,-0.513641,0.009045,-0.677554,0.493862,-0.740286,-1.178864,0.309012,5.715909,-0.972565,-0.777634,-0.720001,-1.359210,-7.394611,-0.533928,-0.098732,-0.098408,-1.078366,-1.195828
0.501916,11.620259,-0.720444,-0.331275,-0.481227,-0.568843,0.063678,-1.608087,-1.307173,0.417090,-9.000785,-1.154748,-0.587051,-1.176617,-1.206328,-8.442669,-0.686614,0.446938,1.807256,-1.666759,-1.523879
-0.459184,27.020229,-8.150658,1.673566,0.177289,-6.646122,-4.555754,-7.391413,-5.614322,0.363388,24.539937,-0.384584,0.428280,-3.526128,-7.888826,24.749116,-2.293609,2.850896,-2.193531,-8.406059,-5.317693
-4.490648,-7.857089,3.936704,-1.711496,5.647486,1.518489,0.417629,1.401306,-1.537015,-0.122761,-8.702364,-4.386961,-1.097904,-2.322084,0.763939,9.838512,-4.562689,-3.957841,-8.655343,1.902750,-1.776260
-1.167112,-3.664784,-0.964628,-0.560874,0.251692,-1.074153,0.185844,-1.821425,-1.971280,-0.487867,4.964444,-1.794704,-0.487109,-1.451796,-1.957078,-7.692392,-1.726914,-0.734638,-0.921621,-1.417266,-1.992006
4.825224,-14.193303,-3.536902,0.729445,-3.571898,-2.610066,-0.871516,-2.909875,-1.924232,-0.213402,11.862052,-0.388371,-0.222727,-1.004658,-3.348579,11.811906,0.230428,2.078091,3.323559,-3.483809,-2.826678
3.568014,11.751838,-2.882818,0.645201,-2.674022,-2.007568,0.113445,-2.727133,-0.826056,0.344177,27.130472,2.167430,0.600387,0.297075,-2.134767,-38.850156,1.412474,2.271959,3.915181,-3.572438,-0.930006
-1.099977,-7.987515,-0.534264,-0.109699,0.493293,-0.180001,0.222166,-1.076761,-1.705753,-0.374748,-5.175632,-0.810621,-0.392336,-0.876401,-1.156792,5.407506,-0.976019,-0.666126,0.090435,-0.972901,-1.198301
-0.174179,-2.783821,-0.013021,-0.715470,-0.252654,-0.222380,-0.020800,-0.572733,-0.978297,-0.265129,-5.095236,-0.384427,-0.661635,-1.094888,-1.009742,-4.578285,-0.394245,-0.617214,0.114495,-0.969300,-1.001857
-0.176950,16.313541,-2.256322,0.470101,0.290704,-2.121283,-0.727821,-2.681562,-2.450181,0.366470,9.741073,-0.226807,-0.387964,-1.102603,-3.081906,-18.751515,-0.699334,0.744783,-3.132809,-2.472841,-2.338490
-0.176584,-3.225366,-0.518067,0.195893,-0.193519,-0.885786,0.003681,-1.217082,-1.061168,-0.183539,5.965353,-0.564105,-0.229510,-0.827441,-1.601712,-7.871858,-0.978832,0.574222,0.491626,-1.093379,-1.464310
-1.087722,-7.549714,-0.105851,-0.555513,0.350887,-0.596195,0.804762,-1.228259,-1.547310,-0.234567,-6.365289,-0.683855,-0.785385,-0.792257,-0.907494,6.109043,-0.906380,-0.265430,-1.190842,-0.608827,-1.490717
